
\data\
ngram 1=4
ngram 2=6

\1-grams:
-0.9542425	</s>
-99	<s>	-6.527569
-0.2340832	A	-99
-0.5149098	B	-7.596297

\2-grams:
-0.30103	<s> A
-0.30103	<s> B
-0.243038	A A
-0.3679768	A B
-0.4393327	B </s>
-0.1962947	B A

\end\
